29 60
NN -0.13793997 -0.101407245 -0.095768556 0.17775375 -0.15955123 0.28087777 -0.11052673 0.097817704 -0.0131894015 0.07298262 0.0737404 -0.18186025 -0.09451554 0.048244078 0.107475735 -0.031745847 0.07923339 0.0010200599 0.11178812 -0.086970694 0.13756162 0.12196527 0.09332272 0.17621373 -0.05634738 0.041229144 0.22887452 -0.0008135055 0.12821521 -0.02491479 -0.056759268 0.3193309 0.17491849 0.1531816 0.03238207 -0.22035196 -0.09534617 -0.019609408 0.19924064 0.10856654 0.057340853 0.15604126 -0.030445987 0.05496079 0.16301754 0.08430047 0.12942542 0.05400522 0.05789757 0.010107142 -0.22221954 -0.10753635 0.24106759 0.102817 -0.1511944 -0.015597697 -0.14988017 0.26726922 -0.08621226 0.1446807
SYM 0.03167065 0.021047937 -0.07470101 0.049802046 -0.025794834 0.13109206 -0.086411834 0.17559709 -0.051313773 0.14358239 0.012333315 0.06599331 -0.018133719 0.021045165 0.14646758 -0.10060684 0.1838783 0.0023877206 0.107775 -0.03169387 -0.012773595 -0.009691772 0.08910508 0.13674377 0.0494324 0.075780295 0.13278297 -0.054214194 0.049807966 -0.0939852 -0.055454604 0.22650562 0.086309254 0.08680075 0.105326116 -0.12692434 0.04200101 -0.09075317 0.2593911 0.14654818 0.16111332 -0.04070143 0.0773466 0.14061615 -0.015364341 0.05789603 0.19992124 0.18205735 0.18157455 -0.1566661 -0.2270452 -0.11325796 0.09730948 0.17886883 -0.054335088 -0.07494526 -0.29261577 0.2800051 -0.3214707 0.28646973
VM -0.2779099 0.052217618 -0.021947268 0.17408752 0.003957656 -0.020300603 -0.020624511 0.25126812 0.060457755 0.2076148 0.15057345 0.08055213 0.086708724 -0.15443404 0.09230239 -0.2829707 0.11474275 -0.025327943 0.16292447 -0.10642576 -0.043217424 0.14453152 0.036378115 0.2451507 -0.18815468 0.06753051 0.107123405 -0.09730827 0.27500233 -0.16296569 0.061755262 0.31318602 0.12348392 0.20491503 0.040988013 -0.22835651 -0.03947532 -0.17506008 0.15212724 0.0056496356 0.13009168 0.19342466 0.08701496 0.11369318 -0.009171536 -0.049158175 -0.04540597 0.16838278 0.18067941 -0.0009981402 -0.11224691 -0.0374631 0.18928011 0.059228122 -0.094634235 -0.13361514 -0.1480097 0.2016649 -0.058196086 0.21077017
PRP -0.18190143 -0.028466562 0.04673557 0.14902918 -0.11189583 0.10770479 -0.15380132 0.12870981 -0.007873555 0.09772709 0.038268004 -0.051913895 0.08014166 0.023364319 0.18864423 -0.053314656 0.10539179 -0.04886561 0.089455284 -0.18479319 0.03587578 0.12902242 0.0673132 0.23737961 -0.123458825 0.08259005 0.15933286 -0.052967165 0.079726264 -0.090904936 -0.060426887 0.36239237 0.20091452 0.25563943 0.10751228 -0.25196648 0.15035589 -0.1499595 0.18865949 0.113858506 -0.051308956 0.20265195 0.12605996 0.12585463 0.08179071 -0.0099280905 -0.010990129 0.15677892 0.21208215 -0.0339403 -0.07016115 -0.09502348 0.0054073185 0.12086387 -0.02244639 -0.05849695 -0.099562295 0.24473895 -0.17000426 0.11190041
NNP 0.22887075 0.20940137 -0.06376482 -0.13444994 0.058994085 0.09240614 -0.06894936 0.11704877 -0.4025877 0.094292946 0.012280278 0.15434931 0.15574077 0.30622745 -0.10408383 -0.11657048 0.29177028 -0.21934962 0.25046885 0.2082302 -0.083002605 0.16368593 0.1555185 0.11257467 0.3648704 0.16462053 0.2477088 -0.25533035 -0.18066035 -0.05538925 -0.10142385 0.012286639 0.08793944 0.040626857 -0.046801146 -0.06418123 -0.07625477 -0.2782808 0.36536193 0.31344226 0.35460055 -0.24405539 0.066861995 0.30240646 0.00036994298 0.25104463 0.45623899 0.26379466 0.276951 -0.26996538 -0.65677357 -0.2752522 0.022967206 0.20001164 0.20552593 -0.0069589987 -0.24965623 0.4409881 -0.45607752 0.19020684
RB -0.19942518 -0.090037994 -0.08939936 0.13761488 -0.101370625 0.22559927 -0.104445025 0.1252013 0.019677056 0.044640996 0.031858664 -0.15821397 -0.018928852 0.0029546754 0.14322351 -0.06833418 0.05144404 -0.032747332 0.089831516 -0.09998052 0.09736151 0.1737775 0.046116017 0.19022067 -0.12007732 0.092532 0.1517394 -0.071925275 0.108833894 -0.07645734 -0.023806127 0.2947135 0.22396506 0.18682192 0.049998414 -0.25773624 -0.009197218 -0.10283859 0.18694046 0.09104483 -0.0045248223 0.16247883 0.04564641 0.087571144 0.14105074 0.035713192 0.048439562 0.090067714 0.14865087 -0.008566507 -0.16867805 -0.058380857 0.13892815 0.12840922 -0.10110061 -0.034838084 -0.110254586 0.214621 -0.07037784 0.108538404
JJ -0.18844676 -0.12626806 -0.14051056 0.132522 -0.02473471 0.2650158 -0.059344243 0.14783008 0.03221545 0.08269743 0.10635529 -0.14166641 -0.059603643 -0.09171998 0.067958154 -0.113482445 0.07834876 0.023970721 0.15373999 0.008233966 0.09779885 0.14104314 0.036131416 0.16075584 -0.12021317 0.08951357 0.13861564 -0.053893894 0.21481933 -0.035746828 0.04618588 0.2748909 0.20549922 0.06108029 -0.021228772 -0.19880159 -0.16742569 -0.0715356 0.20279585 0.08516876 0.10811571 0.1250939 -0.025806561 0.049251024 0.15563548 0.083415605 0.14917848 0.06615823 0.10897014 0.0142789185 -0.25066763 -0.026860328 0.3255129 0.0890227 -0.12666376 -0.090745665 -0.17612025 0.20023218 0.017695658 0.1457227
NST -0.2104686 -0.1879764 -0.19343156 0.08751925 -0.048589643 0.3379532 -0.07931348 0.15712526 0.026387282 -0.034732547 -0.013028462 -0.17619297 -0.08197567 -0.0546891 0.123418964 -0.08784516 0.058963414 -0.024862826 0.12628116 0.013783402 0.09644688 0.20382574 0.027818235 0.18617895 -0.10634597 0.19534259 0.14159724 -0.09880027 0.13112985 -0.08339286 -0.022011343 0.26238933 0.25018486 0.03046095 0.00015174912 -0.17205416 -0.07931772 -0.095137425 0.18546024 0.11276917 -0.028973749 0.07366096 -0.01737797 0.04722271 0.16570409 0.10043795 0.11510841 0.07445719 0.22434591 -0.093910046 -0.26914647 -0.043389287 0.18779454 0.1541051 -0.12099221 -0.083440855 -0.12923248 0.1833303 -0.04763393 0.07646153
QC 0.20041236 0.26262194 -0.3017814 0.16850112 -0.22081737 0.27754137 -0.26406485 -0.1227609 -0.097013034 0.00784157 0.181206 -0.24006817 -0.30890486 0.17588776 0.0066160513 -0.016258493 0.25832582 0.06342255 0.20204937 0.085413255 0.25921068 -0.082261905 0.36965296 0.04356877 0.28517336 -0.11125051 0.46393692 0.032643784 0.1501324 -0.13716297 0.002223663 0.14847414 -0.09302307 -0.1025879 -0.018050019 -0.015902024 -0.23140652 0.0142786745 0.45882252 0.19129862 0.42521322 -0.13930096 -0.1631173 0.15001911 0.15000795 0.10982721 0.45499387 0.23794442 -0.0054763393 0.034129407 -0.37725112 -0.13763344 0.451606 0.16296357 -0.19990617 0.0004905743 -0.5560424 0.3295901 -0.20208082 0.33252618
PSP -0.14918159 0.051355083 -0.17007202 0.17514059 -0.15679778 0.22187395 -0.15620854 0.039300907 0.014163057 0.030029992 0.07588361 -0.22052126 -0.14169712 0.056778383 0.07625182 -0.07665819 0.06683215 -0.0117616635 0.091100514 -0.083647296 0.16884993 0.11464741 0.14834471 0.12628132 -0.0546471 0.012058068 0.24925266 -0.010355416 0.15760987 -0.1143483 0.00414834 0.23986806 0.11568765 0.14869948 0.0119418055 -0.25844193 -0.14339538 -0.060863238 0.2368917 0.046308406 0.13538615 0.11352699 -0.03403275 0.12496722 0.12486004 0.0074653104 0.11978949 0.101452045 0.043727644 0.048946943 -0.22653122 -0.05356029 0.25912276 0.1416989 -0.20806648 -0.00063121296 -0.22558318 0.23873405 -0.051830396 0.18864632
WQ -0.17087927 -0.09926494 0.07501747 0.08967433 -0.079977676 0.10872296 -0.123715416 0.19579881 -0.013822316 0.11116267 -0.077037096 0.0018475775 0.13195576 0.041433666 0.24309929 -0.013767276 0.053996887 -0.062974915 0.046092156 -0.22802347 -0.016610498 0.16311204 0.016306685 0.24267654 -0.14597605 0.15018852 0.06413569 -0.08769715 -0.020332161 -0.03162263 -0.11402371 0.36777195 0.25560245 0.33946043 0.14116327 -0.2837875 0.25726292 -0.18291512 0.16526154 0.1340913 -0.16104193 0.18771447 0.20204945 0.1426985 0.045850545 0.0033968124 -0.02872201 0.14547755 0.27818924 -0.13915192 -0.06699556 -0.114329174 -0.11971201 0.16133751 -0.011229397 -0.040422566 -0.042891804 0.25790524 -0.24098763 0.12412043
DEM -0.1692154 0.011620434 -0.064923815 0.16547051 -0.06826683 0.1437193 -0.13332856 0.081790164 0.01663565 0.08376109 0.13330553 -0.10116698 -0.008736036 -0.04865764 0.06988587 -0.10946578 0.114865765 0.012972714 0.14201374 -0.055850778 0.081054986 0.11000053 0.1030007 0.19196077 -0.09532028 0.027106544 0.19165939 -0.028231643 0.20293093 -0.10963722 0.033953585 0.28499547 0.120348155 0.112712905 0.01219919 -0.1682385 -0.042442184 -0.10728678 0.22138232 0.082360506 0.09235381 0.14887716 0.01591176 0.090489075 0.13294627 0.0067586186 0.06344852 0.1667851 0.13348733 0.039696682 -0.15631227 -0.038181566 0.23577806 0.077875346 -0.09740889 -0.0921392 -0.20937103 0.22544642 -0.03478762 0.15705454
UT -0.17489898 -0.015815534 0.019132353 0.031675294 -0.0029915604 0.0711012 -0.0865736 0.2058307 -0.06760713 0.08313011 -0.0764777 0.011405777 0.14792782 0.07580966 0.15069702 -0.10474032 0.044791557 -0.12997344 0.045478165 -0.14032814 -0.03542755 0.21260996 0.003542103 0.18488821 -0.100080006 0.15747797 0.05707517 -0.1578607 -0.028679974 -0.07864035 -0.07112401 0.2534229 0.23433135 0.29079282 0.08402183 -0.31303704 0.14218618 -0.24621588 0.18770814 0.09999164 -0.062441047 0.11247939 0.16884437 0.19276142 0.008724726 0.0099577075 0.012633877 0.12874463 0.26955885 -0.13418432 -0.20745063 -0.08315981 -0.08508015 0.18254435 -0.0062036463 -0.0003049712 -0.045820452 0.26888758 -0.20983922 0.13086517
QF -0.24498616 -0.08233904 -0.085083105 0.18186449 -0.13285829 0.20730625 -0.14871138 0.10473848 0.07160561 0.049759444 0.05461261 -0.17742099 -0.07064475 -0.053971272 0.17930752 -0.052930553 0.033800542 0.023707595 0.08131944 -0.15512331 0.13101307 0.13559477 0.08159417 0.19593222 -0.15600845 0.05904684 0.15187435 -0.02390028 0.17173392 -0.088462085 -0.0061245156 0.33597612 0.20605703 0.18539073 0.06426879 -0.25376955 0.024744755 -0.07866583 0.19964471 0.04949591 -0.039972447 0.2064948 0.028881501 0.071801655 0.16228077 -0.0024500578 0.0049857385 0.11306019 0.15375856 0.01180637 -0.07947204 -0.031133093 0.16036543 0.13323718 -0.15031207 -0.048827432 -0.1419819 0.20693322 -0.050008975 0.1171218
VAUX -0.21297693 0.003330826 0.022811789 0.16140662 -0.12355823 0.07431922 -0.14151849 0.1390379 0.013986909 0.1129496 0.032459408 -0.04806625 0.05044599 0.026684094 0.16519548 -0.075042345 0.06306279 -0.045517627 0.06494459 -0.20315428 0.04698734 0.13701518 0.07573674 0.21303578 -0.14259794 0.04844281 0.13782534 -0.037193652 0.1134388 -0.099401295 -0.054215755 0.34653345 0.18825516 0.29422468 0.1013013 -0.30189908 0.105558865 -0.14994521 0.17918333 0.06088442 -0.037551418 0.23341615 0.11819777 0.13595253 0.06328439 -0.030586904 -0.043549404 0.13236089 0.17003928 -0.022399366 -0.0899895 -0.08370982 0.038085528 0.12788977 -0.089107156 -0.027830202 -0.092782594 0.25767565 -0.14426018 0.16029395
CC -0.16490291 0.07739997 -0.060553707 0.19418706 -0.110413656 0.077802114 -0.11785407 0.12895332 0.03589559 0.1230628 0.084409036 -0.08288105 -0.03256324 0.013961661 0.09878734 -0.13163103 0.07988141 -0.015526538 0.07528211 -0.17185017 0.06923746 0.10393708 0.12463095 0.16578446 -0.09511383 0.0016919228 0.19999069 -0.009914165 0.16543256 -0.14016685 -0.0041884677 0.2881782 0.10282562 0.24553461 0.06911384 -0.28032357 -0.0550256 -0.08621352 0.19956592 0.034904756 0.12923093 0.16884153 0.03574628 0.14975578 0.039129354 -0.02672576 0.03971695 0.14396529 0.066438496 0.021666769 -0.13945138 -0.08393011 0.18072043 0.1294796 -0.18895623 -0.023034189 -0.2189853 0.25989586 -0.1326744 0.23152572
RP -0.13441072 0.088959396 -0.01414217 0.13552469 -0.103485025 0.04806201 -0.13271697 0.14421381 0.0021292449 0.1183376 0.026492327 0.015663188 -0.0012858497 0.07456997 0.12110858 -0.07213367 0.09742466 -0.033852916 0.09457445 -0.19753014 0.019618431 0.08517585 0.13048062 0.20381223 -0.06420035 0.039107926 0.18002822 -0.024806956 0.09235626 -0.12522729 -0.043276474 0.31030604 0.11508559 0.28389147 0.09573579 -0.24525923 0.06183998 -0.12485581 0.2046854 0.05573076 0.06748322 0.1438153 0.074870065 0.15433557 0.026680687 -0.03169378 0.0041063563 0.17893478 0.12304691 -0.057884824 -0.1283087 -0.14131859 0.054959565 0.15637918 -0.12321029 -0.006185258 -0.198991 0.2721242 -0.20420378 0.2081399
INTF -0.16542767 -0.009645312 -0.056120846 0.117394775 -0.041626766 0.10552454 -0.08160136 0.17432705 0.002769373 0.11904809 0.053345714 -0.016556565 0.031405717 -0.014049153 0.11920168 -0.12680966 0.07964149 -0.022241347 0.10179009 -0.10128957 0.023112705 0.14144112 0.07253272 0.17036243 -0.075838484 0.086306974 0.114400625 -0.081096515 0.11790523 -0.07962193 -0.013520781 0.27535284 0.16830531 0.20136218 0.051135417 -0.24314274 0.0033999963 -0.12264865 0.19142635 0.08073782 0.04947064 0.125997 0.059268177 0.12600876 0.05033795 0.035271764 0.06492562 0.13608436 0.16220996 -0.036751546 -0.16249152 -0.089914344 0.11954895 0.13329409 -0.080197655 -0.032180853 -0.13439175 0.23447448 -0.14535807 0.15833512
RDP -0.36096513 -0.55035084 -0.3250261 -0.049627736 0.1651555 0.52095866 0.09136825 0.4269913 0.083237946 0.027217219 -0.06977017 -0.017399158 -0.120200895 -0.45462972 0.3274753 -0.25581598 0.13318734 0.05287823 0.28611508 0.21815458 -0.021516114 0.21122994 -0.25159907 0.30795592 -0.2865113 0.5093263 -0.03586876 -0.29992297 0.299543 -0.01220696 0.051248305 0.44136846 0.47158876 -0.22954467 -0.06645417 -0.03994787 0.0034857276 -0.21650879 0.24108678 0.15169251 -0.1533113 -0.01594818 0.0477194 -0.14166327 0.14367792 0.118890464 0.16193505 0.009789774 0.5672517 -0.2869112 -0.26805818 0.14627317 0.21081819 0.08097547 0.07766462 -0.3381281 -0.00030523012 -0.011708771 0.09498687 -0.006944156
INJ -0.20961028 -0.50871116 -0.15028521 -0.19114636 0.2519249 0.38361365 0.08112962 0.5253791 -0.0040176166 0.06710821 -0.32979956 0.17187014 0.12430231 -0.24347414 0.45184776 -0.18046193 0.098515324 -0.077439584 0.120335005 0.046544854 -0.1929241 0.2541303 -0.27859616 0.26709032 -0.21283886 0.59950835 -0.17759965 -0.3719909 -0.07251197 0.026375728 -0.087247364 0.38534597 0.57207155 0.037969522 0.10466699 -0.20379068 0.33661932 -0.34818482 0.25954786 0.23751695 -0.29846135 -0.08154485 0.28112346 0.04189171 -0.017681615 0.14775439 0.15640162 0.0826631 0.69942415 -0.52442133 -0.2444236 -0.002046987 -0.24309066 0.29003507 0.19778223 -0.21160029 0.026459543 0.11457697 -0.3123205 0.041307524
QO -0.03304374 0.15904582 -0.18172033 0.16682248 -0.1205719 0.1671491 -0.16369769 -0.0020150703 -0.00069590623 0.0723145 0.18493365 -0.1662742 -0.10024333 0.028576566 0.024179598 -0.12778953 0.13429816 0.00017285427 0.15798247 -0.011854654 0.15737829 0.045370042 0.24063879 0.12726535 0.0676724 -0.070409864 0.27769607 -0.03339474 0.2125524 -0.14399824 0.05074567 0.23011895 0.006536591 0.07404358 -0.00659402 -0.12102569 -0.12702768 -0.07028324 0.32819393 0.11028148 0.24487808 0.042407796 -0.07092285 0.12499393 0.14265768 0.030245958 0.21273163 0.22117327 0.061242323 0.055900574 -0.25553358 -0.06219983 0.3434417 0.13244575 -0.16566765 -0.008531782 -0.37043566 0.28154823 -0.08966999 0.2545005
CL -0.14347291 0.06312578 -0.18658884 0.25637832 -0.19955707 0.25236213 -0.18439749 0.02089411 0.03809563 0.03910583 0.15075877 -0.2649242 -0.19725467 0.02310065 0.0783726 -0.10385428 0.10519913 0.027257076 0.11368253 -0.07468464 0.22296968 0.06289256 0.20414071 0.1609502 -0.023945084 -0.06814185 0.336445 0.03799851 0.24931915 -0.1578061 0.03118023 0.28130564 0.063757636 0.10615441 0.030479196 -0.18701303 -0.15395933 -0.00556343 0.2778751 0.06954667 0.17625906 0.123765714 -0.07255043 0.08538675 0.17953347 -0.0015433573 0.13058057 0.13881253 0.011245234 0.0948505 -0.19730423 -0.05602381 0.35623756 0.12582718 -0.26090333 -0.006756639 -0.33754504 0.2709743 -0.058092047 0.2386112
UNK -0.078719 -0.25757673 -0.17445406 -0.080854416 0.1811949 0.30092433 -0.06108182 0.479595 -0.02233453 0.18363994 -0.2043652 0.0671882 0.23269463 -0.095867485 0.4875722 -0.18642542 0.13289289 -0.04204064 0.16986991 0.04138914 -0.09745408 0.31081456 0.011222621 0.31890827 -0.028092377 0.35597748 -0.011226092 -0.3983701 -0.062326565 -0.01490019 -0.059173398 0.45786026 0.5049017 0.20614244 0.10255225 -0.25830948 0.40965796 -0.44918397 0.510661 0.4167538 -0.19559854 -0.08828938 0.33765745 0.13255125 0.12276915 0.1625302 0.28597835 0.31354943 0.5891486 -0.352985 -0.29139376 -0.08746294 -0.13614097 0.37756705 0.15239789 -0.09799831 -0.24872412 0.31763816 -0.43464556 0.29646826
ECH -0.12832654 -0.09151349 -0.08639052 0.06804276 -0.02009122 0.18749747 -0.064722165 0.17767465 -0.0092143025 0.082295336 -0.012539166 -0.020881481 0.019531228 -0.033037473 0.15601416 -0.10062188 0.10531539 -0.028170615 0.10832506 -0.036134813 0.020939974 0.13793468 0.022703368 0.18839544 -0.076334685 0.15055396 0.10556036 -0.115021236 0.07662613 -0.05428388 -0.019114025 0.28795937 0.2195779 0.11859754 0.054229215 -0.18332414 0.0546927 -0.15918553 0.2157959 0.12675929 0.008470136 0.06438146 0.075181685 0.08169119 0.078036845 0.0506884 0.10837977 0.1226031 0.24172123 -0.1122291 -0.19442014 -0.05739925 0.08131822 0.14926773 -0.026311457 -0.070043564 -0.13498054 0.20065112 -0.14072357 0.14695002
INTJ -0.11628977 -0.061974794 -0.06505928 0.071197405 -0.032960292 0.15879947 -0.07719984 0.1549844 -0.015379375 0.07643938 0.008325995 -0.03892721 0.023820523 -0.009428676 0.13430864 -0.08691039 0.082917795 -0.026434774 0.09240097 -0.049648337 0.026912766 0.12493808 0.043308746 0.16263327 -0.05949606 0.12140759 0.10782172 -0.092564836 0.07565508 -0.06271153 -0.025845751 0.2436453 0.17231177 0.12820102 0.04937915 -0.17981404 0.0441298 -0.12644348 0.1955747 0.104796626 0.016083611 0.067525 0.07293281 0.08935324 0.06800505 0.03576705 0.08822908 0.11664948 0.19260673 -0.0792031 -0.16331917 -0.066771746 0.07339849 0.13521805 -0.045314066 -0.05261758 -0.11942976 0.19123724 -0.12987727 0.13179442
NP -0.061311994 -0.023718944 -0.044000853 0.03664245 -0.01975561 0.07073809 -0.040866125 0.07079339 -0.0054653 0.03321013 0.004972147 -0.03053984 -0.013133345 -0.012406211 0.068721004 -0.04798924 0.039834376 -0.011307402 0.056812387 -0.021391444 0.015357179 0.047987387 0.020149382 0.07504374 -0.03549064 0.039263923 0.054228578 -0.0371971 0.051635623 -0.025234047 -0.0032363061 0.12225757 0.08026506 0.041034546 0.02340344 -0.077829756 9.808318e-06 -0.04476441 0.08661801 0.048335 0.022171412 0.027837154 0.028594887 0.037582714 0.029850205 0.022846166 0.037766196 0.047943085 0.078092195 -0.023572631 -0.079887554 -0.017251048 0.050861433 0.059657253 -0.028629556 -0.034334727 -0.065629356 0.08829217 -0.047557075 0.063228995
NNPP -0.06525602 -0.027017893 -0.03467143 0.03697488 -0.01047946 0.075635575 -0.033344857 0.08865925 -0.0010050291 0.038848046 0.0099700475 -0.02220906 0.002390636 -0.010113789 0.06600307 -0.04642279 0.05337672 -0.009523979 0.054403603 -0.029505981 0.018186616 0.06264579 0.030695029 0.09375163 -0.019716332 0.05986289 0.052726228 -0.04661862 0.0408938 -0.03470812 -0.018966349 0.1379535 0.08354997 0.069163576 0.02935188 -0.081744075 0.015142198 -0.06993733 0.102380045 0.06371874 0.0114373965 0.039689533 0.035782494 0.050961908 0.031784613 0.01831301 0.05507172 0.06647773 0.09415069 -0.050504744 -0.08877713 -0.032061346 0.044574752 0.061890572 -0.029879859 -0.027190361 -0.08244691 0.102884024 -0.08099421 0.07033926
PRPP -0.04441142 -0.01769301 -0.028855842 0.023510374 -0.022381466 0.06037359 -0.032754693 0.0445141 -0.0048702713 0.027268372 0.014205822 -0.0288541 -0.0065248203 -0.002586551 0.041029006 -0.030287253 0.030334901 -0.008762722 0.029576812 -0.020083237 0.019194098 0.037710898 0.02200398 0.051117007 -0.017442597 0.028863551 0.047454547 -0.027666194 0.028815059 -0.019583382 -0.0038610424 0.08388044 0.053992175 0.039882027 0.004650566 -0.06155607 0.0033141517 -0.03721161 0.057869803 0.027410433 0.009826314 0.029659037 0.010395298 0.031282913 0.0318223 0.014100142 0.026760723 0.043855667 0.05924154 -0.009909013 -0.047105346 -0.012952791 0.034818046 0.042531315 -0.0147045 -0.017880645 -0.052105054 0.0664559 -0.0428967 0.044907708
CO -0.026843328 -0.013335379 -0.014224951 0.01002933 -0.011390785 0.020359991 -0.020140301 0.028009366 -0.006264042 0.013342556 0.0076015564 0.0015393109 0.0065037375 0.004161118 0.014722578 -0.026371472 0.010068971 -0.0061291945 0.025574848 -0.0077677835 -0.0018884254 0.02062608 0.016314661 0.024929807 -0.003878336 0.024728028 0.020384967 -0.019552339 0.025058262 -0.021214599 -0.003220839 0.03693741 0.035276037 0.023115175 0.006237098 -0.031332195 -0.0031008213 -0.027855964 0.045551647 0.013916753 0.016013503 0.015356901 0.014561181 0.0229043 0.0117670745 0.0032667988 0.015164369 0.020139933 0.03547263 -0.008508179 -0.028984204 -0.006906779 0.015250085 0.024132304 -0.0051127654 -0.006368269 -0.03608851 0.040175766 -0.029037382 0.027599167
